hemant:0.028955685,0.033503354,-0.017089996,0.095927194,-0.010144927,-0.081073806,0.052167546,-0.01796486,0.03251538,-0.026740981,0.0600799,-0.0316765,0.017097369,-0.030655429,0.032384943,0.037141196,-0.001601876,0.0043238914,0.012235205,0.06562124,0.031120254,-0.02873639,-0.10204068,0.012034605,-0.020454522,-0.0061802776,-0.025147552,-0.037037477,0.03523427,-0.025460785,0.005267661,0.06357281,-0.014330706,-0.047915176,0.007374847,-0.079784565,0.007680399,-0.05097764,0.04300719,0.008075886,-0.036247656,-0.006967415,-0.046238836,-0.05014528,-0.035864357,-0.004890568,-0.019283054,0.009313391,0.07161533,0.06092768,0.0034197597,-0.00912295,-0.019911151,0.010881673,0.013975998,-0.054095425,0.018015726,-0.011416608,-0.015158155,0.019112514,0.024685731,0.057783734,-0.0048304326,0.0036747358,-0.016845351,0.039013363,-0.026006442,-0.06439973,0.023052631,-0.06643197,-0.045501675,0.0397943,-0.074482545,0.06451409,0.025530197,0.006896983,-0.0011432447,-0.039939217,-0.012171284,0.03565805,-0.0017354373,-0.01598822,-0.09473382,-0.020789519,0.05858422,-0.067160286,0.073984064,0.05100658,-0.0009511302,0.0035710093,0.0018096315,-0.010859212,0.031584054,0.034860745,0.01763539,0.062811345,0.007953917,-0.0553281,-0.060448814,0.067268595,-0.0589817,-0.047214393,0.00937867,-0.055505842,0.01544407,-0.059477933,-0.03299416,-8.782884e-05,0.0021769844,0.030594552,0.10378304,-0.0176649,-0.06384565,-0.0066955606,-0.048349135,-0.040282816,0.030015593,-0.02638262,-0.10850422,0.06961976,-0.042981196,0.06928593,-0.0058518713,0.044731207,-0.011291055,-0.02842428,0.04655511,-0.13792484,-0.006816487,0.0554746,-0.0030650988,-0.046278425,0.10072959,-0.050384652,-0.013305765,0.031269994,0.029320214,0.015482104,0.06500227,0.026893824,0.07921057,0.03235417,-0.01579639,0.03472338,0.033904124,0.05219267,-0.05662044,0.04227621,0.013982692,-0.007571349,0.03120329,0.037228122,-0.019502338,-0.049268678,0.04629565,-0.019101648,0.003970214,0.09589484,-0.0077936114,0.057789806,0.037872788,-0.059591077,0.03834992,0.063828394,-0.046438377,0.0057840436,-0.0060298652,0.061875306,0.061220173,0.0048081237,0.0010641961,0.03852006,0.055911884,-0.0710572,-0.028294854,-0.012215061,-0.062359408,-0.009605353,0.038175113,0.019891202,-0.04475132,-0.077783324,-0.023125438,-0.04761959,-0.042061407,0.042981368,-0.008855858,-0.028318485,-0.096208185,0.042747483,-0.083967425,0.0061296257,0.072973475,-0.0077128257,-0.025878323,0.009114182,0.0019495646,-0.075061135,0.051884376,-0.06780883,0.05555855,-0.0028390968,0.0090145515,-0.0029025662,0.045574587,-0.036511607,-0.041929904,-0.012154628,-0.07460976,0.06170712,-0.032573406,-0.04143664,0.018049983,-0.02742078,-0.027075123,0.056326803,0.022026975,-0.00849638,-0.012587149,-0.015623165,0.04820252,0.0071755056,-0.0073456867,0.04278968,0.0428729,-0.020427428,0.05579404,0.007598602,-0.04248,0.029502941,0.015485413,-0.04043976,-0.020066908,-0.12205762,-0.060643688,0.118144356,-0.03486194,0.13284342,0.030205376,-0.02258863,0.020758627,0.015043938,-0.0020976213,0.031728312,0.026806273,0.013324399,0.027607925,-0.017582467,0.033872295,-0.035468116,-0.08652795,-0.0016867631,0.018445792,0.04981442,0.0054902597,0.012983132,-0.071529634,0.010997235,0.04597037,0.0052271355,-0.023364954,0.0252141,0.032762032,-0.04086447,0.06507403,-0.016775051,-0.081571124,0.019285789,-0.04170152,-0.06950726,-0.0030756993,-0.01922961,0.013923677,0.07329747,0.040085793,0.048671693,-0.070179746,-0.057243273,-0.050696228,0.04744034,-0.060230166,0.028493114,-0.051615786,0.018283596,-0.023460083,-0.0072381026,-0.028488431,0.0043522147,-0.054332543,0.06833506,-0.061904564,-0.016282838,0.048764758,0.02610129,-0.0031671121,0.013429737,-0.036227588,-0.10179099,-0.0036473,0.001097186,-0.017735392,0.0017124503,0.08186636,0.00079175294,-0.032574117,0.018417768,0.009109787,0.00948689,0.0028277496,-0.07681194,0.0059164213,0.04212488,0.09051155,-0.013953874,0.0051739602,-0.0067380746,0.028261608,-0.03304644,-0.045992933,-0.06320986,-0.042178072,0.013044562,-0.047129624,0.050457165,0.04443388,-0.03813631,-0.002679126,0.05138882,-0.09024238,0.06498876,-0.0218989,0.08172076,-0.06524646,0.05083441,-0.0490367,0.01056696,-0.03215133,-0.077446714,0.05323,0.009019142,0.09513225,-0.046907112,0.0036660463,-0.020373477,0.03774226,-0.070601806,0.03862848,-0.0039776065,-0.06815882,0.0036995376,-0.06669273,0.040230103,0.014718555,0.02108095,0.00022185504,0.10142347,0.086594075,0.019814065,0.08146783,-0.01142039,-0.047849815,0.073186785,0.0060602687,-0.020408483,-0.018715117,0.07238886,-0.076098025,-0.009878431,-0.058366228,0.022282457,0.028924523,-0.011614034,0.013018209,0.03753776,-0.005542153,0.019801676,-0.013581437,0.022389235,-0.06111893,-0.024372889,-0.03237227,0.03823448,0.03218812,0.048852988,0.06687822,-0.004709081,-0.018153634,0.030374832,-0.037803877,0.033433102,0.057386596,-0.056570206,-0.0523714,-0.026062218,-0.019461494,-0.020131804,-0.025308413,0.00954649,-0.09315358,-0.036139186,-0.0038092216,-0.039151408,-0.03080631,0.025647474,-0.10660478,-0.0008377306,-0.0007279073,-0.009323056,-0.018109158,-0.049988493,0.028051546,-0.02447713,-0.04046562,-0.0974074,-0.041191246,0.061279994,-0.041567985,0.048034158,-0.006485693,0.026972663,-0.0009859096,-0.016383735,-0.030697713,0.022275468,0.03250667,0.029214393,0.024575977,0.034365844,0.05060705,0.025369411,-0.033874623,-0.019924728,0.028419135,-0.046426322,-0.02676717,0.010087196,-0.04522067,-0.037983555,-0.0013626734,0.0068708323,0.03942366,0.056685198,-0.025689464,0.03366617,-0.010301311,-0.01806556,0.08910445,0.007340792,-0.048028734,0.02005219,-0.012274004,-0.08962296,0.005416898,-0.008512812,-0.015803693,-0.072289035,0.052623495,0.0015133932,0.015903724,0.05093277,0.0041765743,0.04281677,0.028454006,-0.010724696,-0.07983751,0.06143479,0.047148563,-0.010528633,0.060488433,-0.06773726,0.0102210445,0.012827684,0.0108965915,-0.076014444,0.019867329,-0.01586827,-0.13983808,0.014163185,0.04867177,-0.012015158,-0.062365733,0.01839281,0.07612922,0.07223794,0.02176537,-0.06352306,-0.0046221125,0.0011880416,0.0041618193,-0.03482974,0.02964032,0.0016669472,-0.0193431,-0.013540877,0.062813714,-0.017657874,0.04121559,-0.032806482,-0.024715215,-0.0507088,0.04237279,0.014157075,-0.036412407,0.0034134754,-0.059408966,0.0154108545,0.014350458,-0.0012463956,0.043905575,-0.012094248,-0.037122432,0.010873157
hrishit:0.017907351,-0.040398948,-0.028566426,-0.017157856,0.07069861,0.011743869,0.06994542,-0.1052943,-0.035787057,0.047054704,0.0004875654,-0.015829898,0.041836955,-0.005459006,0.017000232,-0.07347123,-0.09261369,0.028262114,0.028822687,0.118213765,0.034235716,0.032535307,-0.048703585,0.0014252437,-0.015240324,0.06111629,0.026824398,-0.031062633,-0.003031348,-0.10352865,0.07321977,0.021222599,-0.046526477,0.040881086,0.06724059,-0.020962304,-0.04100887,0.05972163,-0.0032353217,0.02258293,-0.050749052,-0.008271953,-0.034586683,-0.06435424,-0.027166065,-0.0055691954,-0.029962247,-0.04692593,-0.010378401,-0.0274022,-0.014744852,-0.06652221,-0.020724503,0.06673772,-0.0026567706,-0.055782672,0.042147312,-0.007836422,-0.01927635,0.030783616,0.10884011,-0.009373776,0.0820163,-0.012157777,0.009217278,-0.06789751,0.03315305,-0.1188553,-0.07517104,0.067700036,-0.06462327,-0.046367686,-0.019261764,-0.0012779704,0.010623923,-0.009572382,-0.0149014285,0.019580724,0.07349285,-0.061235417,-0.012139925,0.0824192,-0.03375639,-0.030450618,-0.047920227,-0.0004883588,0.028099203,-0.008666327,-0.058279634,0.01053252,0.026054779,0.0017766994,-0.021584187,0.022661354,0.075972885,-0.015924996,0.052796837,0.0017144957,-0.032815397,-0.047610372,0.0033034205,-0.028564945,0.051386423,-0.013143215,-0.025152037,-0.0930126,-0.07641987,0.05298774,-0.07063308,0.045249697,-0.036533516,0.0077037523,-0.0018794222,-0.014643064,0.0630428,-0.058055293,-0.029914383,0.04646347,-0.051542696,-0.0074996306,-0.056534182,-0.014315053,0.00404405,0.03141703,-0.048986655,0.008383628,-0.064451024,-0.067352906,-0.03189184,0.0540916,0.01827028,0.012774496,0.009655604,-0.045352936,-0.00785039,-0.0435262,0.0830294,0.07162406,-0.070124425,0.016731363,0.06848124,-0.007985015,0.031381756,0.05346751,-0.07593621,-0.03283808,-0.031727128,0.022384001,-0.015702603,-0.014594873,-0.04042275,0.07558507,-0.05283503,-0.0067099505,0.015252941,-0.075086474,-0.0139029175,0.049124554,-0.015805481,0.019315505,-0.08047791,0.029038487,0.047236755,-0.018052567,-0.07350578,-0.0017743236,-0.021002166,-0.06940674,0.12343154,0.019441845,-0.020487586,-0.0025450517,0.051252794,-0.05176735,-0.0009129531,-0.010281881,-0.06496033,0.016454088,0.015537869,-0.006019938,-0.05619068,0.034064077,-0.023479285,-0.010866532,-0.0047230003,0.054473415,0.054026827,-0.04429449,-0.018864915,-0.006809337,-0.02991266,-0.017028455,0.05014574,0.05521693,-0.070040405,-0.026254838,-0.04302873,-0.017369349,0.06612856,-0.06591797,0.028719006,-0.014061238,-0.10275624,0.042527728,-0.014240505,0.0044405884,-0.031464882,-0.015233701,0.03004039,-0.025051929,-0.058370005,-0.09766393,-0.08447506,-0.025982855,0.036446985,-0.020358633,-0.0055708713,0.056107122,-0.0048209038,0.0457352,-0.008887737,0.013300016,-0.012112952,0.062502824,0.07742308,-0.0443067,0.07786499,0.00941571,-0.030492011,-0.003425988,0.018602373,0.07830441,0.027854012,-0.048086803,0.013275124,0.0070419973,-0.0889425,0.005912614,0.051185373,-0.047931336,-0.032187272,-0.009332203,-0.07691497,0.03615474,-0.060619142,-0.07376337,0.033080965,-0.046414774,-0.015412218,0.0958478,-0.014520875,0.0027728572,0.0037175638,0.0005858682,0.030657144,0.018364131,-0.0786668,0.07405742,-0.039277755,0.021450019,0.01034659,0.023037931,-0.044015635,0.018686483,0.009866641,-0.01207591,0.03884064,0.06399819,0.04598323,-0.01608503,0.09000036,-0.052667428,-0.034489132,0.030130003,0.07339435,0.052998923,0.04984324,0.0019893618,-0.03354854,0.04500341,-0.0037861543,0.02401559,-0.037668128,0.020574447,-0.031065863,0.00063347287,-0.031757012,-0.052284956,-0.015207767,0.06880871,0.03137645,-0.0077630687,0.03453809,-0.0139231635,0.030095305,-0.014265799,0.029575132,0.010152207,-0.018226633,-0.08589101,0.027086,0.052710366,-0.0004916584,0.010093915,-0.047910307,-0.007163865,-0.050142232,0.04960266,0.00861699,0.021922875,-0.0018988383,-0.010673085,0.06507696,0.07316459,-0.024487762,0.009708113,-0.014556121,-0.051191334,-0.021870902,0.021638481,-0.04526007,0.0006952643,-0.02047846,-0.008240393,0.0017548257,-0.019633256,-0.019913485,-0.033254594,-0.06971132,0.016165681,-0.06969149,-0.0049686986,0.0117593445,-0.053919263,-0.017175563,-0.06523732,0.02818664,-0.045609962,-0.04167186,0.058186013,-0.013268513,-0.027443865,0.02921523,-0.05609392,0.015791979,0.053734787,-0.06074925,-0.008346573,-0.03648162,0.044256553,-0.061452784,0.049200777,0.004490484,0.014777113,-0.04489231,-0.0020287842,0.055682227,-0.026571702,0.06807031,-0.0096366145,0.03519469,-0.0023368434,0.040551253,-0.029931452,-0.022879168,0.0024002707,0.0087394435,0.07762064,-0.0006707854,-0.07739413,-0.012435611,0.034142252,-0.023548758,0.07184609,-0.007243606,-0.026632247,0.035777092,0.037921492,-0.029803995,-0.015732925,0.06282086,-0.004759662,0.020914886,-0.088069186,-0.005427507,-0.059600707,-0.021733956,-0.038719743,-0.0018043154,0.10021442,0.0007094304,0.01598404,0.008259111,0.057353035,-0.0030512747,0.06329934,-0.087427005,0.07706256,-0.03248437,0.013634765,-0.078348175,-0.027453419,-0.004013303,0.0059569706,0.043862406,0.11453469,-0.043231685,0.03483465,0.005209026,-0.04470243,-0.01550682,0.08326368,0.032697625,-0.027971305,-0.021032766,-0.019501839,-0.034143057,-0.063187495,-0.08015752,-0.055691577,-0.027202273,-0.021984193,-0.054573514,0.052255522,0.021497795,0.07768305,0.081419885,-0.076964565,-0.0002992172,0.058853664,-0.024605734,-0.0007669774,0.016189577,-0.05071472,0.034664653,0.07725946,-0.073098466,-0.012088446,0.016520575,0.031109778,-0.015008501,0.038267754,-0.05736472,-0.018841421,0.016221756,-0.06779681,-0.015977414,0.03860097,-0.031196129,-0.018773124,0.038802255,-0.03220744,-0.018823233,0.019322336,-0.013457589,0.03651797,-0.008922929,0.010945017,0.03442229,-0.056747336,-0.034706328,0.071534164,0.058339473,0.08945773,-0.036926813,0.059019424,-0.008456313,0.01305088,-0.027953504,-0.00055974536,-0.036223963,-0.043031797,-0.054408364,0.032075647,0.00093166885,0.03906385,0.030135978,0.0014522393,-0.015139302,-0.06720602,0.04173574,0.0019678539,0.004767079,0.02338994,0.07666906,-0.04987554,0.019758943,-0.008250698,-0.015324756,-0.013414716,-0.036566954,-0.028617984,0.062245145,0.06148389,-0.012997886,0.015733395,-0.011873779,-0.01669909,-0.011787725,0.0037044743,0.07216702,-0.039313234,0.036522858,-0.068006404,-0.047497988,-0.026299635,0.043532733,-0.022555359,-0.012944326,-0.043281827,-0.0054189195,0.09748141
jahnvi:0.043280598,-0.027611881,-0.013014317,-0.024134144,0.02044954,0.0132865645,0.027072892,-0.082567684,0.05534884,-0.0032928532,0.07924166,0.006993016,0.009371244,0.042631954,-0.0069846697,-0.06433959,-0.0566507,0.0332198,0.052463382,0.09393998,0.033772152,0.0015338738,0.013086507,-0.077499695,-0.075729944,-0.014033853,-0.021617696,-0.054988787,-0.07355407,-0.074456215,0.07450151,0.009545121,-0.006618792,0.029599203,0.017418804,-0.040904157,0.07871581,0.051963728,0.08109312,-0.023013504,-0.038340256,-0.04240431,-0.03736651,0.020205805,-0.064660005,-0.047407776,-0.034461364,0.0025864788,-0.069566205,-0.03801669,0.006854305,-0.05351829,-0.10712987,0.039339997,-0.018193895,-0.023180768,-0.0013214585,-0.028661724,-0.026792292,0.011085032,-0.020174127,0.11503213,-0.052202594,0.02614013,-0.023192504,-0.022622012,0.062895775,-0.091245286,0.040762935,-0.030971944,-0.023851186,-0.064872034,0.014823394,0.002901534,-0.03881129,-0.04027677,0.024013164,-0.06521086,-0.012263628,-0.042199753,-0.012144014,0.074925356,0.005856202,0.003702641,0.014849045,0.040947605,0.03549139,-0.05489796,-0.10102854,0.014196579,-0.023998234,0.01682906,0.014701456,0.03841987,0.01771237,0.025669178,-0.025771191,-0.002645552,-0.051795565,-0.02704999,0.023347905,0.07747055,0.033261992,-0.013573861,0.018578371,-0.04356628,-0.061868317,-0.0041065156,-0.08372871,-0.02916653,0.046309274,0.02750683,-0.059508346,0.020282775,0.012953142,0.033093765,0.100867964,0.046222996,0.035902355,0.046795487,-0.07077357,0.010241935,0.037886884,0.045843814,-0.06957551,-0.0070941085,-0.034987565,-0.04977895,-0.050012108,0.01169135,-0.03353775,0.09160958,-0.026165184,-0.05378973,0.00036821744,0.004773164,-0.053905826,-0.05043899,0.015995603,0.015950244,-0.008198175,0.030141072,-0.0026675751,0.06925102,-0.03606914,-0.0331519,-0.04263649,0.05492404,0.022562034,0.0031943475,0.04498187,-0.0008088766,-0.004304782,-0.031570483,0.06887921,0.009415397,0.02372281,0.08610845,-0.011220309,-0.034977302,0.0110943625,0.024978297,-0.009953998,-0.0139545975,0.047417067,0.023819046,-0.032434154,-0.023773694,0.01826715,0.07748628,-0.012420352,0.050171413,-0.031337753,-0.034728173,-0.0034372406,-0.063453704,-0.049291763,0.012410665,0.020741727,0.062247165,0.04011605,0.020535098,-0.025581982,-0.051510848,-0.053208463,0.042604912,0.02969795,0.061599713,0.015429663,-0.006377103,0.014986339,-0.017712042,0.028309442,0.010811105,0.027949182,-0.008035626,0.006058271,0.10470125,0.054524723,0.02889851,0.056228183,-0.040419515,0.0092723705,0.027520893,0.04322161,0.12248586,-0.030585986,0.034259167,0.07231662,0.034014422,-0.013820973,-0.060079988,-0.035246696,-0.019393736,-0.06251632,-0.11243614,0.011218055,0.0064435466,0.022722451,0.022504386,0.014470449,-0.0100810565,0.1163192,0.0025483605,0.04689426,0.024128538,0.038097754,-0.017772075,-0.0638138,-0.017114114,0.060602725,0.07366232,-0.055538796,0.025069455,0.017854571,0.010433666,-0.059173413,-0.05017114,0.012224981,0.00013121289,0.016773827,0.01852098,0.030936034,0.083221585,-0.09544365,-0.004337346,0.0023840808,0.04157698,-0.09004624,0.090778984,-0.067724034,-0.07482665,0.06180543,0.011395925,0.024336299,-0.075706,-0.04581867,-0.005264399,0.017978242,-0.039450407,-0.022843566,0.03793456,0.048614964,0.005199434,-0.03221791,0.08339141,0.07914144,-0.03845221,0.028966587,-0.029681982,0.012052488,-0.026918197,0.003334156,0.011354174,0.016465269,0.07970491,0.0032097057,-0.0597578,0.010031081,-0.062167805,-0.081704624,0.082343765,-0.026346752,-0.016926778,-0.031752687,-0.037974887,-0.015384885,-0.03794726,0.053744406,0.05671313,0.028575594,-0.019594233,-0.022913132,0.014888962,-0.02649291,-0.012674333,-0.0015218375,-0.034943335,-0.0047518546,-0.0664233,-0.05263365,0.07966078,-0.045033824,0.016510088,-0.012407161,-0.024370372,-0.1258149,0.049106788,-0.0039836806,-0.027484218,0.045375478,0.01939607,0.08077047,-0.025083987,0.008893929,-0.0294646,-0.0025073867,-0.02291274,0.028796535,0.06791582,-0.004657483,0.05499104,-0.007134053,0.046775687,0.034588378,0.028507223,0.08248283,0.019470947,0.0065765516,-0.025085716,-0.04559699,-0.056600034,-0.07732958,0.059204455,-0.0008280672,-0.06774355,0.0628942,-0.09626279,-0.0015874433,0.007967666,0.09384172,-0.072793245,0.0036437965,-0.07139272,-0.03283973,-0.0011380898,-0.017041525,-0.03916766,-0.052703165,0.020325659,-0.048967738,0.019723324,0.025635751,0.022491463,0.032935858,0.009525929,0.06919043,-0.020207958,-0.056568563,0.02422824,0.059425365,0.04842993,-0.0017865762,-0.022485917,0.009770333,-0.017829752,-0.0050446885,0.018914727,-0.035388794,-0.04982608,-0.056233622,-0.03348918,-0.004597255,0.072337024,-0.030070273,-0.0040542595,-0.015424186,0.027724342,0.014866304,0.03552685,0.042297367,-0.02666372,0.009666782,0.02611875,0.02313685,-0.068374455,0.00373798,0.04336427,-0.021016484,0.017232032,0.010161744,0.02274268,0.0031628257,0.025206674,0.016277472,0.08863531,-0.05821921,0.037978735,-0.015091399,-0.04575304,-0.025162693,-0.06551884,0.019491713,-0.00023190067,0.04597415,0.030306118,-0.038107798,0.00832829,0.062369194,-0.060719505,-0.0050090486,0.0043338602,0.0565961,0.010896748,-0.07843693,0.0026771848,0.008968775,0.0022779554,-0.013819686,-0.058076084,-0.031102808,-0.042378314,-0.12836753,0.008187827,0.012684141,0.0464201,-0.034353126,-0.0031998046,0.02823164,0.029411782,0.01496242,-0.005060281,0.042957857,0.011495417,-0.0036198497,0.02990846,-0.012546416,-0.036018144,-0.05220987,-0.030291123,0.003668331,0.023118306,0.0142398095,0.03511215,0.019993953,0.023853771,0.010236916,-1.6675833e-05,0.009395711,0.023171319,-0.043735746,0.06992547,-0.033133864,-0.0188433,-0.094650194,-0.013903962,-0.05543711,0.028072054,0.062305495,0.046897035,0.04451579,0.034633365,0.037179608,-0.034836017,-0.119236484,-0.031182421,-0.06614255,0.0766703,-0.0053409752,0.036634106,0.053922005,0.014621762,0.016821053,-0.03875114,-0.02402258,-0.07038765,0.024582863,-0.004906418,-0.064708516,-0.05209809,-0.016681803,-0.010702829,0.04085022,0.058254316,-0.0037470232,0.08264167,-0.03037761,0.012950566,0.021982715,-0.034522273,-0.0061007645,-0.086823024,0.012664802,0.10667527,0.040332973,0.0040266253,0.023333281,-0.0764917,-0.03495705,-0.032569252,0.040258992,-0.008144748,-0.030850198,0.008864851,0.053748295,-0.0015615356,0.039776683,0.03625222,-0.038350813,0.020668317,0.012031934,0.038071085
